{"learner":{"attributes":{},"feature_names":["MEyellow","MEblue","MEturquoise","MEgreen","MEpink","MEgreenyellow","MEsalmon","MEmagenta"],"feature_types":[],"gradient_booster":{"model":{"cats":{"enc":[],"feature_segments":[],"sorted_idx":[]},"gbtree_model_param":{"num_parallel_tree":"1","num_trees":"50"},"iteration_indptr":[0,1,2,3,4,5,6,7,8,9,10,11,12,13,14,15,16,17,18,19,20,21,22,23,24,25,26,27,28,29,30,31,32,33,34,35,36,37,38,39,40,41,42,43,44,45,46,47,48,49,50],"tree_info":[0,0,0,0,0,0,0,0,0,0,0,0,0,0,0,0,0,0,0,0,0,0,0,0,0,0,0,0,0,0,0,0,0,0,0,0,0,0,0,0,0,0,0,0,0,0,0,0,0,0],"trees":[{"base_weights":[-3.935604E-2,-1.4318398E0,7.540628E-1,-1.6441585E-2,1.4814811E-3,1.1315964E-2,-6.726058E-3],"categories":[],"categories_nodes":[],"categories_segments":[],"categories_sizes":[],"default_left":[0,0,0,0,0,0,0],"id":0,"left_children":[1,3,5,-1,-1,-1,-1],"loss_changes":[3.1959497E1,3.7625656E0,1.07039585E1,0E0,0E0,0E0,0E0],"parents":[2147483647,0,0,1,1,2,2],"right_children":[2,4,6,-1,-1,-1,-1],"split_conditions":[-5.3870034E-1,8.6668754E-1,1.0343704E0,-1.6441585E-2,1.4814811E-3,1.1315964E-2,-6.726058E-3],"split_indices":[7,0,7,0,0,0,0],"split_type":[0,0,0,0,0,0,0],"sum_hessian":[2.6949999E1,9.49E0,1.746E1,8.33E0,1.16E0,1.3969999E1,3.49E0],"tree_param":{"num_deleted":"0","num_feature":"8","num_nodes":"7","size_leaf_vector":"1"}},{"base_weights":[-2.0947982E-2,-1.4567016E0,9.045024E-1,-1.6559254E-2,1.4735254E-3,1.2862832E-2,-5.89205E-3],"categories":[],"categories_nodes":[],"categories_segments":[],"categories_sizes":[],"default_left":[0,0,0,0,0,0,0],"id":1,"left_children":[1,3,5,-1,-1,-1,-1],"loss_changes":[3.8121674E1,3.8357296E0,1.0714515E1,0E0,0E0,0E0,0E0],"parents":[2147483647,0,0,1,1,2,2],"right_children":[2,4,6,-1,-1,-1,-1],"split_conditions":[-5.3870034E-1,8.6668754E-1,1.0343704E0,-1.6559254E-2,1.4735254E-3,1.2862832E-2,-5.89205E-3],"split_indices":[7,0,7,0,0,0,0],"split_type":[0,0,0,0,0,0,0],"sum_hessian":[2.6698927E1,1.0239387E1,1.645954E1,9.079387E0,1.1599994E0,1.3219577E1,3.2399633E0],"tree_param":{"num_deleted":"0","num_feature":"8","num_nodes":"7","size_leaf_vector":"1"}},{"base_weights":[3.3917952E-2,-1.4062676E0,7.863956E-1,-1.61509E-2,1.4656136E-3,1.12089515E-2,-1.0635627E-2],"categories":[],"categories_nodes":[],"categories_segments":[],"categories_sizes":[],"default_left":[0,0,0,0,0,0,0],"id":2,"left_children":[1,3,5,-1,-1,-1,-1],"loss_changes":[3.3091923E1,3.6375198E0,1.3585457E1,0E0,0E0,0E0,0E0],"parents":[2147483647,0,0,1,1,2,2],"right_children":[2,4,6,-1,-1,-1,-1],"split_conditions":[-5.3870034E-1,8.6668754E-1,1.2550149E0,-1.61509E-2,1.4656136E-3,1.12089515E-2,-1.0635627E-2],"split_indices":[7,0,7,0,0,0,0],"split_type":[0,0,0,0,0,0,0],"sum_hessian":[2.851538E1,9.48773E0,1.902765E1,8.327732E0,1.1599975E0,1.6447754E1,2.5798972E0],"tree_param":{"num_deleted":"0","num_feature":"8","num_nodes":"7","size_leaf_vector":"1"}},{"base_weights":[-1.2194286E-1,-1.1512618E0,1.7087278E-1,-1.5194464E-2,1.4874672E-3,-1.2226995E-3,6.7506437E-3],"categories":[],"categories_nodes":[],"categories_segments":[],"categories_sizes":[],"default_left":[0,0,0,0,0,0,0],"id":3,"left_children":[1,3,5,-1,-1,-1,-1],"loss_changes":[7.7201114E0,2.9339333E0,3.0834641E0,0E0,0E0,0E0,0E0],"parents":[2147483647,0,0,1,1,2,2],"right_children":[2,4,6,-1,-1,-1,-1],"split_conditions":[-7.119597E-1,1.7965809E-1,4.9979746E-1,-1.5194464E-2,1.4874672E-3,-1.2226995E-3,6.7506437E-3],"split_indices":[1,4,2,0,0,0,0],"split_type":[0,0,0,0,0,0,0],"sum_hessian":[2.3961432E1,4.6574955E0,1.9303936E1,3.498004E0,1.1594915E0,1.2685776E1,6.6181607E0],"tree_param":{"num_deleted":"0","num_feature":"8","num_nodes":"7","size_leaf_vector":"1"}},{"base_weights":[4.155391E-2,-1.539856E0,9.242024E-1,-1.717755E-2,-7.0596496E-3,1.2551057E-2,-1.7777096E-3],"categories":[],"categories_nodes":[],"categories_segments":[],"categories_sizes":[],"default_left":[0,0,0,0,0,0,0],"id":4,"left_children":[1,3,5,-1,-1,-1,-1],"loss_changes":[4.342013E1,4.418068E-1,7.492283E0,0E0,0E0,0E0,0E0],"parents":[2147483647,0,0,1,1,2,2],"right_children":[2,4,6,-1,-1,-1,-1],"split_conditions":[-5.3870034E-1,4.4272363E-1,1.0343704E0,-1.717755E-2,-7.0596496E-3,1.2551057E-2,-1.7777096E-3],"split_indices":[7,5,7,0,0,0,0],"split_type":[0,0,0,0,0,0,0],"sum_hessian":[2.9087492E1,1.0152691E1,1.8934801E1,7.494019E0,2.6586719E0,1.4455195E1,4.4796047E0],"tree_param":{"num_deleted":"0","num_feature":"8","num_nodes":"7","size_leaf_vector":"1"}},{"base_weights":[3.2950684E-2,-4.018844E-1,7.9801446E-1,-6.195414E-3,9.3346E-3,1.3841685E-2,-3.0670075E-3],"categories":[],"categories_nodes":[],"categories_segments":[],"categories_sizes":[],"default_left":[0,0,0,0,0,0,0],"id":5,"left_children":[1,3,5,-1,-1,-1,-1],"loss_changes":[9.28031E0,5.7625904E0,6.96128E0,0E0,0E0,0E0,0E0],"parents":[2147483647,0,0,1,1,2,2],"right_children":[2,4,6,-1,-1,-1,-1],"split_conditions":[4.176401E-1,9.497641E-1,6.886544E-1,-6.195414E-3,9.3346E-3,1.3841685E-2,-3.0670075E-3],"split_indices":[5,3,3,0,0,0,0],"split_type":[0,0,0,0,0,0,0],"sum_hessian":[2.5931866E1,1.683701E1,9.094854E0,1.4938178E1,1.8988326E0,5.776775E0,3.31808E0],"tree_param":{"num_deleted":"0","num_feature":"8","num_nodes":"7","size_leaf_vector":"1"}},{"base_weights":[9.193686E-2,-2.4215037E-1,9.388565E-1,-4.6006315E-3,1.0314849E-2,1.44078955E-2,-3.9584762E-3],"categories":[],"categories_nodes":[],"categories_segments":[],"categories_sizes":[],"default_left":[0,0,0,0,0,0,0],"id":6,"left_children":[1,3,5,-1,-1,-1,-1],"loss_changes":[7.798601E0,6.0209665E0,5.7788186E0,0E0,0E0,0E0,0E0],"parents":[2147483647,0,0,1,1,2,2],"right_children":[2,4,6,-1,-1,-1,-1],"split_conditions":[5.501423E-1,1.0284866E0,6.886544E-1,-4.6006315E-3,1.0314849E-2,1.44078955E-2,-3.9584762E-3],"split_indices":[5,3,3,0,0,0,0],"split_type":[0,0,0,0,0,0,0],"sum_hessian":[2.5758757E1,1.8984112E1,6.7746453E0,1.6756018E1,2.2280936E0,4.865447E0,1.9091982E0],"tree_param":{"num_deleted":"0","num_feature":"8","num_nodes":"7","size_leaf_vector":"1"}},{"base_weights":[-9.680763E-2,-1.4184272E0,7.695521E-1,-1.61374E-2,1.7161573E-3,1.1505916E-2,-4.811878E-3],"categories":[],"categories_nodes":[],"categories_segments":[],"categories_sizes":[],"default_left":[0,0,0,0,0,0,0],"id":7,"left_children":[1,3,5,-1,-1,-1,-1],"loss_changes":[3.3256943E1,3.8406181E0,8.949553E0,0E0,0E0,0E0,0E0],"parents":[2147483647,0,0,1,1,2,2],"right_children":[2,4,6,-1,-1,-1,-1],"split_conditions":[-5.3870034E-1,1.1522658E0,9.849713E-1,-1.61374E-2,1.7161573E-3,1.1505916E-2,-4.811878E-3],"split_indices":[7,6,7,0,0,0,0],"split_type":[0,0,0,0,0,0,0],"sum_hessian":[2.709209E1,1.0475158E1,1.6616934E1,9.315933E0,1.1592251E0,1.2798059E1,3.8188734E0],"tree_param":{"num_deleted":"0","num_feature":"8","num_nodes":"7","size_leaf_vector":"1"}},{"base_weights":[-8.227527E-2,-1.359046E0,6.5031666E-1,-1.5678082E-2,1.7069095E-3,1.02975E-2,-5.4794983E-3],"categories":[],"categories_nodes":[],"categories_segments":[],"categories_sizes":[],"default_left":[0,0,0,0,0,0,0],"id":8,"left_children":[1,3,5,-1,-1,-1,-1],"loss_changes":[2.6918367E1,3.6117344E0,8.912922E0,0E0,0E0,0E0,0E0],"parents":[2147483647,0,0,1,1,2,2],"right_children":[2,4,6,-1,-1,-1,-1],"split_conditions":[-5.3870034E-1,1.4725226E0,9.849713E-1,-1.5678082E-2,1.7069095E-3,1.02975E-2,-5.4794983E-3],"split_indices":[7,6,7,0,0,0,0],"split_type":[0,0,0,0,0,0,0],"sum_hessian":[2.683397E1,9.471608E0,1.736236E1,8.312341E0,1.1592677E0,1.3293564E1,4.068797E0],"tree_param":{"num_deleted":"0","num_feature":"8","num_nodes":"7","size_leaf_vector":"1"}},{"base_weights":[8.130753E-2,-1.4546194E0,9.216397E-1,-1.5425124E-2,-3.7206262E-3,1.206665E-2,-8.911168E-3],"categories":[],"categories_nodes":[],"categories_segments":[],"categories_sizes":[],"default_left":[0,0,0,0,0,0,0],"id":9,"left_children":[1,3,5,-1,-1,-1,-1],"loss_changes":[3.6913788E1,3.9038277E-1,1.0596071E1,0E0,0E0,0E0,0E0],"parents":[2147483647,0,0,1,1,2,2],"right_children":[2,4,6,-1,-1,-1,-1],"split_conditions":[-5.3870034E-1,1.1522658E0,1.2913781E0,-1.5425124E-2,-3.7206262E-3,1.206665E-2,-8.911168E-3],"split_indices":[7,6,7,0,0,0,0],"split_type":[0,0,0,0,0,0,0],"sum_hessian":[2.6561369E1,9.134562E0,1.7426807E1,8.055644E0,1.078918E0,1.534795E1,2.0788581E0],"tree_param":{"num_deleted":"0","num_feature":"8","num_nodes":"7","size_leaf_vector":"1"}},{"base_weights":[-1.7431836E-1,-1.3606423E0,6.326743E-1,-1.4239281E-2,-4.1238368E-3,9.777591E-3,-9.701571E-3],"categories":[],"categories_nodes":[],"categories_segments":[],"categories_sizes":[],"default_left":[0,0,0,0,0,0,0],"id":10,"left_children":[1,3,5,-1,-1,-1,-1],"loss_changes":[2.5428097E1,5.530548E-2,9.7735615E0,0E0,0E0,0E0,0E0],"parents":[2147483647,0,0,1,1,2,2],"right_children":[2,4,6,-1,-1,-1,-1],"split_conditions":[-2.932247E-1,9.497641E-1,1.2550149E0,-1.4239281E-2,-4.1238368E-3,9.777591E-3,-9.701571E-3],"split_indices":[7,3,7,0,0,0,0],"split_type":[0,0,0,0,0,0,0],"sum_hessian":[2.4661596E1,9.706474E0,1.4955122E1,8.6289625E0,1.0775118E0,1.2626627E1,2.3284953E0],"tree_param":{"num_deleted":"0","num_feature":"8","num_nodes":"7","size_leaf_vector":"1"}},{"base_weights":[-5.133974E-2,-1.3242089E0,7.220095E-1,-1.5312176E-2,1.8019155E-3,9.9990945E-3,-8.838405E-3],"categories":[],"categories_nodes":[],"categories_segments":[],"categories_sizes":[],"default_left":[0,0,0,0,0,0,0],"id":11,"left_children":[1,3,5,-1,-1,-1,-1],"loss_changes":[2.725531E1,3.5303593E0,8.589226E0,0E0,0E0,0E0,0E0],"parents":[2147483647,0,0,1,1,2,2],"right_children":[2,4,6,-1,-1,-1,-1],"split_conditions":[-5.3870034E-1,5.740842E-1,1.2187848E0,-1.5312176E-2,1.8019155E-3,9.9990945E-3,-8.838405E-3],"split_indices":[7,0,7,0,0,0,0],"split_type":[0,0,0,0,0,0,0],"sum_hessian":[2.571674E1,9.450194E0,1.6266544E1,8.291447E0,1.1587474E0,1.4188493E1,2.0780528E0],"tree_param":{"num_deleted":"0","num_feature":"8","num_nodes":"7","size_leaf_vector":"1"}},{"base_weights":[9.812698E-2,-1.2743188E0,7.676619E-1,-1.48043055E-2,-3.560113E-4,1.1033421E-2,-2.461057E-3],"categories":[],"categories_nodes":[],"categories_segments":[],"categories_sizes":[],"default_left":[0,0,0,0,0,0,0],"id":12,"left_children":[1,3,5,-1,-1,-1,-1],"loss_changes":[2.710256E1,2.4232597E0,6.9864674E0,0E0,0E0,0E0,0E0],"parents":[2147483647,0,0,1,1,2,2],"right_children":[2,4,6,-1,-1,-1,-1],"split_conditions":[-5.608253E-1,1.4725226E0,9.849713E-1,-1.48043055E-2,-3.560113E-4,1.1033421E-2,-2.461057E-3],"split_indices":[7,6,7,0,0,0,0],"split_type":[0,0,0,0,0,0,0],"sum_hessian":[2.7429977E1,8.697704E0,1.8732273E1,7.28964E0,1.408064E0,1.4006169E1,4.726103E0],"tree_param":{"num_deleted":"0","num_feature":"8","num_nodes":"7","size_leaf_vector":"1"}},{"base_weights":[-4.44496E-2,-1.3506795E0,8.130763E-1,-1.5313276E-2,-5.6544715E-4,1.007013E-2,-6.6860467E-3],"categories":[],"categories_nodes":[],"categories_segments":[],"categories_sizes":[],"default_left":[0,0,0,0,0,0,0],"id":13,"left_children":[1,3,5,-1,-1,-1,-1],"loss_changes":[3.16318E1,2.5268497E0,5.581319E0,0E0,0E0,0E0,0E0],"parents":[2147483647,0,0,1,1,2,2],"right_children":[2,4,6,-1,-1,-1,-1],"split_conditions":[-2.932247E-1,1.4725226E0,1.4140915E0,-1.5313276E-2,-5.6544715E-4,1.007013E-2,-6.6860467E-3],"split_indices":[7,6,7,0,0,0,0],"split_type":[0,0,0,0,0,0,0],"sum_hessian":[2.6259073E1,1.0178913E1,1.608016E1,8.771253E0,1.4076607E0,1.4502314E1,1.5778458E0],"tree_param":{"num_deleted":"0","num_feature":"8","num_nodes":"7","size_leaf_vector":"1"}},{"base_weights":[-3.1920888E-2,-1.3949578E0,7.0922375E-1,-1.6177177E-2,-3.5062977E-4,1.0621275E-2,-1.0257356E-2],"categories":[],"categories_nodes":[],"categories_segments":[],"categories_sizes":[],"default_left":[0,0,0,0,0,0,0],"id":14,"left_children":[1,3,5,-1,-1,-1,-1],"loss_changes":[2.8262396E1,2.9259987E0,1.2202992E1,0E0,0E0,0E0,0E0],"parents":[2147483647,0,0,1,1,2,2],"right_children":[2,4,6,-1,-1,-1,-1],"split_conditions":[-5.5938095E-1,1.1522658E0,1.2187848E0,-1.6177177E-2,-3.5062977E-4,1.0621275E-2,-1.0257356E-2],"split_indices":[7,6,7,0,0,0,0],"split_type":[0,0,0,0,0,0,0],"sum_hessian":[2.5997482E1,8.846233E0,1.7151249E1,7.4382133E0,1.4080204E0,1.4574495E1,2.5767531E0],"tree_param":{"num_deleted":"0","num_feature":"8","num_nodes":"7","size_leaf_vector":"1"}},{"base_weights":[-6.490628E-2,-3.3914667E-1,6.332499E-1,-5.2237283E-3,1.1586954E-2,1.0744598E-2,5.187781E-4],"categories":[],"categories_nodes":[],"categories_segments":[],"categories_sizes":[],"default_left":[0,0,0,0,0,0,0],"id":15,"left_children":[1,3,5,-1,-1,-1,-1],"loss_changes":[5.7429442E0,6.4733233E0,2.1224682E0,0E0,0E0,0E0,0E0],"parents":[2147483647,0,0,1,1,2,2],"right_children":[2,4,6,-1,-1,-1,-1],"split_conditions":[5.501423E-1,1.0284866E0,2.8136253E-1,-5.2237283E-3,1.1586954E-2,1.0744598E-2,5.187781E-4],"split_indices":[5,3,6,0,0,0,0],"split_type":[0,0,0,0,0,0,0],"sum_hessian":[2.7873415E1,2.0381609E1,7.4918065E0,1.8740404E1,1.6412034E0,3.7771437E0,3.7146626E0],"tree_param":{"num_deleted":"0","num_feature":"8","num_nodes":"7","size_leaf_vector":"1"}},{"base_weights":[1.5764272E-2,-1.2712084E0,7.457279E-1,-1.47254765E-2,1.5776431E-3,1.0573485E-2,-9.3732E-3],"categories":[],"categories_nodes":[],"categories_segments":[],"categories_sizes":[],"default_left":[0,0,0,0,0,0,0],"id":16,"left_children":[1,3,5,-1,-1,-1,-1],"loss_changes":[2.6355768E1,3.1548538E0,1.0372627E1,0E0,0E0,0E0,0E0],"parents":[2147483647,0,0,1,1,2,2],"right_children":[2,4,6,-1,-1,-1,-1],"split_conditions":[-3.4628016E-1,1.4725226E0,1.2913781E0,-1.47254765E-2,1.5776431E-3,1.0573485E-2,-9.3732E-3],"split_indices":[7,6,7,0,0,0,0],"split_type":[0,0,0,0,0,0,0],"sum_hessian":[2.6045586E1,9.157991E0,1.6887594E1,8.000276E0,1.1577154E0,1.4562986E1,2.3246086E0],"tree_param":{"num_deleted":"0","num_feature":"8","num_nodes":"7","size_leaf_vector":"1"}},{"base_weights":[-5.2440986E-2,-1.4122757E0,7.328737E-1,-1.6270405E-2,2.0450072E-3,1.0511798E-2,-3.1546967E-3],"categories":[],"categories_nodes":[],"categories_segments":[],"categories_sizes":[],"default_left":[0,0,0,0,0,0,0],"id":17,"left_children":[1,3,5,-1,-1,-1,-1],"loss_changes":[3.1571379E1,4.0862103E0,6.6000414E0,0E0,0E0,0E0,0E0],"parents":[2147483647,0,0,1,1,2,2],"right_children":[2,4,6,-1,-1,-1,-1],"split_conditions":[-5.3870034E-1,8.6668754E-1,9.849713E-1,-1.6270405E-2,2.0450072E-3,1.0511798E-2,-3.1546967E-3],"split_indices":[7,0,7,0,0,0,0],"split_type":[0,0,0,0,0,0,0],"sum_hessian":[2.7594826E1,9.809881E0,1.7784945E1,8.653979E0,1.1559019E0,1.364058E1,4.1443644E0],"tree_param":{"num_deleted":"0","num_feature":"8","num_nodes":"7","size_leaf_vector":"1"}},{"base_weights":[9.839651E-2,-1.2291344E0,8.1102467E-1,-1.4409076E-2,1.9800102E-3,1.2303192E-2,-5.260398E-3],"categories":[],"categories_nodes":[],"categories_segments":[],"categories_sizes":[],"default_left":[0,0,0,0,0,0,0],"id":18,"left_children":[1,3,5,-1,-1,-1,-1],"loss_changes":[2.669351E1,3.2729511E0,1.089376E1,0E0,0E0,0E0,0E0],"parents":[2147483647,0,0,1,1,2,2],"right_children":[2,4,6,-1,-1,-1,-1],"split_conditions":[-5.3870034E-1,1.1522658E0,1.0343704E0,-1.4409076E-2,1.9800102E-3,1.2303192E-2,-5.260398E-3],"split_indices":[7,6,7,0,0,0,0],"split_type":[0,0,0,0,0,0,0],"sum_hessian":[2.6162447E1,8.885381E0,1.7277067E1,7.7288437E0,1.1565367E0,1.3213299E1,4.0637684E0],"tree_param":{"num_deleted":"0","num_feature":"8","num_nodes":"7","size_leaf_vector":"1"}},{"base_weights":[-8.526352E-2,-1.480712E0,6.6285E-1,-2.9854358E-3,-1.5953412E-2,1.0380646E-2,-8.178049E-3],"categories":[],"categories_nodes":[],"categories_segments":[],"categories_sizes":[],"default_left":[0,0,0,0,0,0,0],"id":19,"left_children":[1,3,5,-1,-1,-1,-1],"loss_changes":[2.8375538E1,8.0665207E-1,1.0723135E1,0E0,0E0,0E0,0E0],"parents":[2147483647,0,0,1,1,2,2],"right_children":[2,4,6,-1,-1,-1,-1],"split_conditions":[-3.4628016E-1,-1.3859782E0,1.2187848E0,-2.9854358E-3,-1.5953412E-2,1.0380646E-2,-8.178049E-3],"split_indices":[7,7,7,0,0,0,0],"split_type":[0,0,0,0,0,0,0],"sum_hessian":[2.5240665E1,8.467348E0,1.6773317E1,1.0670737E0,7.400274E0,1.3620617E1,3.1527011E0],"tree_param":{"num_deleted":"0","num_feature":"8","num_nodes":"7","size_leaf_vector":"1"}},{"base_weights":[-3.399131E-2,-1.3382499E0,6.958832E-1,-1.5735315E-2,2.2673188E-3,9.262276E-3,-8.313429E-3],"categories":[],"categories_nodes":[],"categories_segments":[],"categories_sizes":[],"default_left":[0,0,0,0,0,0,0],"id":20,"left_children":[1,3,5,-1,-1,-1,-1],"loss_changes":[2.5965422E1,3.9571934E0,6.9332495E0,0E0,0E0,0E0,0E0],"parents":[2147483647,0,0,1,1,2,2],"right_children":[2,4,6,-1,-1,-1,-1],"split_conditions":[-5.3870034E-1,8.2018626E-1,1.1291989E0,-1.5735315E-2,2.2673188E-3,9.262276E-3,-8.313429E-3],"split_indices":[7,0,0,0,0,0,0],"split_type":[0,0,0,0,0,0,0],"sum_hessian":[2.5297895E1,8.778144E0,1.6519753E1,7.626154E0,1.1519902E0,1.4696649E1,1.8231034E0],"tree_param":{"num_deleted":"0","num_feature":"8","num_nodes":"7","size_leaf_vector":"1"}},{"base_weights":[-7.167493E-2,-1.3162634E0,8.1024903E-1,-5.822027E-3,-1.4627241E-2,1.2001518E-2,-3.038941E-3],"categories":[],"categories_nodes":[],"categories_segments":[],"categories_sizes":[],"default_left":[0,0,0,0,0,0,0],"id":21,"left_children":[1,3,5,-1,-1,-1,-1],"loss_changes":[3.1327393E1,4.1861725E-1,7.642993E0,0E0,0E0,0E0,0E0],"parents":[2147483647,0,0,1,1,2,2],"right_children":[2,4,6,-1,-1,-1,-1],"split_conditions":[-2.932247E-1,-1.2596312E0,9.849713E-1,-5.822027E-3,-1.4627241E-2,1.2001518E-2,-3.038941E-3],"split_indices":[7,7,7,0,0,0,0],"split_type":[0,0,0,0,0,0,0],"sum_hessian":[2.656924E1,1.08147545E1,1.5754487E1,2.6263978E0,8.188356E0,1.1613173E1,4.141314E0],"tree_param":{"num_deleted":"0","num_feature":"8","num_nodes":"7","size_leaf_vector":"1"}},{"base_weights":[-1.3424061E-1,-1.1944904E0,4.4995758E-1,-1.4078566E-2,2.2014475E-3,8.427454E-3,-7.521651E-3],"categories":[],"categories_nodes":[],"categories_segments":[],"categories_sizes":[],"default_left":[0,0,0,0,0,0,0],"id":22,"left_children":[1,3,5,-1,-1,-1,-1],"loss_changes":[1.7209194E1,3.2786922E0,9.171072E0,0E0,0E0,0E0,0E0],"parents":[2147483647,0,0,1,1,2,2],"right_children":[2,4,6,-1,-1,-1,-1],"split_conditions":[-5.3870034E-1,8.6668754E-1,1.0343704E0,-1.4078566E-2,2.2014475E-3,8.427454E-3,-7.521651E-3],"split_indices":[7,0,7,0,0,0,0],"split_type":[0,0,0,0,0,0,0],"sum_hessian":[2.5916098E1,8.835698E0,1.70804E1,7.681854E0,1.1538446E0,1.3099239E1,3.9811614E0],"tree_param":{"num_deleted":"0","num_feature":"8","num_nodes":"7","size_leaf_vector":"1"}},{"base_weights":[-5.238605E-2,-1.3130426E0,6.2099034E-1,-1.3998919E-2,-3.1406442E-3,8.600794E-3,-8.444232E-3],"categories":[],"categories_nodes":[],"categories_segments":[],"categories_sizes":[],"default_left":[0,0,0,0,0,0,0],"id":23,"left_children":[1,3,5,-1,-1,-1,-1],"loss_changes":[2.3773426E1,4.051571E-1,7.140506E0,0E0,0E0,0E0,0E0],"parents":[2147483647,0,0,1,1,2,2],"right_children":[2,4,6,-1,-1,-1,-1],"split_conditions":[-5.5938095E-1,9.647651E-1,1.2550149E0,-1.3998919E-2,-3.1406442E-3,8.600794E-3,-8.444232E-3],"split_indices":[7,4,7,0,0,0,0],"split_type":[0,0,0,0,0,0,0],"sum_hessian":[2.6044577E1,8.737254E0,1.7307323E1,7.6691847E0,1.0680689E0,1.5234778E1,2.0725443E0],"tree_param":{"num_deleted":"0","num_feature":"8","num_nodes":"7","size_leaf_vector":"1"}},{"base_weights":[-3.9081518E-2,-1.1862864E0,6.8395174E-1,-1.3956131E-2,2.3024431E-3,9.708738E-3,-8.390207E-3],"categories":[],"categories_nodes":[],"categories_segments":[],"categories_sizes":[],"default_left":[0,0,0,0,0,0,0],"id":24,"left_children":[1,3,5,-1,-1,-1,-1],"loss_changes":[2.1577385E1,3.2996664E0,7.802244E0,0E0,0E0,0E0,0E0],"parents":[2147483647,0,0,1,1,2,2],"right_children":[2,4,6,-1,-1,-1,-1],"split_conditions":[-5.3870034E-1,1.1522658E0,1.2550149E0,-1.3956131E-2,2.3024431E-3,9.708738E-3,-8.390207E-3],"split_indices":[7,6,7,0,0,0,0],"split_type":[0,0,0,0,0,0,0],"sum_hessian":[2.4035374E1,9.044368E0,1.4991006E1,7.892784E0,1.1515834E0,1.2919531E1,2.0714755E0],"tree_param":{"num_deleted":"0","num_feature":"8","num_nodes":"7","size_leaf_vector":"1"}},{"base_weights":[2.7295241E-2,-1.2102996E0,7.1109444E-1,-1.4118255E-2,2.2998292E-3,8.676136E-3,-6.267676E-3],"categories":[],"categories_nodes":[],"categories_segments":[],"categories_sizes":[],"default_left":[0,0,0,0,0,0,0],"id":25,"left_children":[1,3,5,-1,-1,-1,-1],"loss_changes":[2.5009794E1,3.3798313E0,4.5245876E0,0E0,0E0,0E0,0E0],"parents":[2147483647,0,0,1,1,2,2],"right_children":[2,4,6,-1,-1,-1,-1],"split_conditions":[-5.3870034E-1,8.6668754E-1,1.4140915E0,-1.4118255E-2,2.2998292E-3,8.676136E-3,-6.267676E-3],"split_indices":[7,0,7,0,0,0,0],"split_type":[0,0,0,0,0,0,0],"sum_hessian":[2.7536118E1,9.525726E0,1.8010391E1,8.373812E0,1.1519145E0,1.6438688E1,1.5717028E0],"tree_param":{"num_deleted":"0","num_feature":"8","num_nodes":"7","size_leaf_vector":"1"}},{"base_weights":[-4.8913572E-2,-1.4191211E0,6.482776E-1,-1.5236597E-2,-3.2782536E-3,1.1376055E-2,-6.5443455E-3],"categories":[],"categories_nodes":[],"categories_segments":[],"categories_sizes":[],"default_left":[0,0,0,0,0,0,0],"id":26,"left_children":[1,3,5,-1,-1,-1,-1],"loss_changes":[2.5900469E1,5.423031E-1,1.222979E1,0E0,0E0,0E0,0E0],"parents":[2147483647,0,0,1,1,2,2],"right_children":[2,4,6,-1,-1,-1,-1],"split_conditions":[-3.4628016E-1,8.403564E-1,9.542937E-1,-1.5236597E-2,-3.2782536E-3,1.1376055E-2,-6.5443455E-3],"split_indices":[7,5,7,0,0,0,0],"split_type":[0,0,0,0,0,0,0],"sum_hessian":[2.5149452E1,8.13198E0,1.7017471E1,7.059533E0,1.0724474E0,1.2462876E1,4.554596E0],"tree_param":{"num_deleted":"0","num_feature":"8","num_nodes":"7","size_leaf_vector":"1"}},{"base_weights":[5.8651995E-2,-1.3331007E0,8.3576024E-1,-1.4082334E-2,-3.5088724E-3,1.0064574E-2,-6.176919E-3],"categories":[],"categories_nodes":[],"categories_segments":[],"categories_sizes":[],"default_left":[0,0,0,0,0,0,0],"id":27,"left_children":[1,3,5,-1,-1,-1,-1],"loss_changes":[3.1352524E1,2.73571E-1,5.2253275E0,0E0,0E0,0E0,0E0],"parents":[2147483647,0,0,1,1,2,2],"right_children":[2,4,6,-1,-1,-1,-1],"split_conditions":[-2.932247E-1,1.4725226E0,1.4140915E0,-1.4082334E-2,-3.5088724E-3,1.0064574E-2,-6.176919E-3],"split_indices":[7,6,7,0,0,0,0],"split_type":[0,0,0,0,0,0,0],"sum_hessian":[2.6958563E1,9.402967E0,1.7555595E1,8.331899E0,1.071069E0,1.598573E1,1.5698655E0],"tree_param":{"num_deleted":"0","num_feature":"8","num_nodes":"7","size_leaf_vector":"1"}},{"base_weights":[1.6332934E-2,-4.8053995E-1,4.1855836E-1,-7.4541485E-3,1.008549E-2,7.152358E-3,-2.5277531E-3],"categories":[],"categories_nodes":[],"categories_segments":[],"categories_sizes":[],"default_left":[0,0,0,0,0,0,0],"id":28,"left_children":[1,3,5,-1,-1,-1,-1],"loss_changes":[5.536066E0,5.6455884E0,3.2254024E0,0E0,0E0,0E0,0E0],"parents":[2147483647,0,0,1,1,2,2],"right_children":[2,4,6,-1,-1,-1,-1],"split_conditions":[-4.798543E-1,8.828221E-1,1.0424122E0,-7.4541485E-3,1.008549E-2,7.152358E-3,-2.5277531E-3],"split_indices":[1,3,1,0,0,0,0],"split_type":[0,0,0,0,0,0,0],"sum_hessian":[2.5694027E1,1.1407514E1,1.4286512E1,1.0108804E1,1.2987099E0,9.862609E0,4.423904E0],"tree_param":{"num_deleted":"0","num_feature":"8","num_nodes":"7","size_leaf_vector":"1"}},{"base_weights":[5.4954838E-2,-1.1483481E0,7.0425695E-1,-1.3534372E-2,2.2426238E-3,8.879014E-3,-7.773815E-3],"categories":[],"categories_nodes":[],"categories_segments":[],"categories_sizes":[],"default_left":[0,0,0,0,0,0,0],"id":29,"left_children":[1,3,5,-1,-1,-1,-1],"loss_changes":[2.2175152E1,3.108675E0,5.6919594E0,0E0,0E0,0E0,0E0],"parents":[2147483647,0,0,1,1,2,2],"right_children":[2,4,6,-1,-1,-1,-1],"split_conditions":[-5.5938095E-1,1.4725226E0,1.5508283E0,-1.3534372E-2,2.2426238E-3,8.879014E-3,-7.773815E-3],"split_indices":[7,6,1,0,0,0,0],"split_type":[0,0,0,0,0,0,0],"sum_hessian":[2.634702E1,8.964744E0,1.7382275E1,7.8115473E0,1.1531967E0,1.5821927E1,1.5603487E0],"tree_param":{"num_deleted":"0","num_feature":"8","num_nodes":"7","size_leaf_vector":"1"}},{"base_weights":[-6.481971E-2,-3.9637065E-1,7.615197E-1,-6.887469E-3,2.7034408E-3,9.599618E-3,-6.8733015E-4],"categories":[],"categories_nodes":[],"categories_segments":[],"categories_sizes":[],"default_left":[0,0,0,0,0,0,0],"id":30,"left_children":[1,3,5,-1,-1,-1,-1],"loss_changes":[7.2489734E0,3.8419237E0,1.318635E0,0E0,0E0,0E0,0E0],"parents":[2147483647,0,0,1,1,2,2],"right_children":[2,4,6,-1,-1,-1,-1],"split_conditions":[1.7613876E-1,3.7354705E-1,2.1996412E0,-6.887469E-3,2.7034408E-3,9.599618E-3,-6.8733015E-4],"split_indices":[2,5,2,0,0,0,0],"split_type":[0,0,0,0,0,0,0],"sum_hessian":[2.435693E1,1.7753891E1,6.6030383E0,1.2318694E1,5.4351974E0,5.2031775E0,1.3998611E0],"tree_param":{"num_deleted":"0","num_feature":"8","num_nodes":"7","size_leaf_vector":"1"}},{"base_weights":[-9.4952425E-3,-1.2641151E0,6.5598786E-1,-3.3829364E-3,-1.4723647E-2,9.931818E-3,-6.2979963E-3],"categories":[],"categories_nodes":[],"categories_segments":[],"categories_sizes":[],"default_left":[0,0,0,0,0,0,0],"id":31,"left_children":[1,3,5,-1,-1,-1,-1],"loss_changes":[2.3764683E1,1.4033957E0,8.693004E0,0E0,0E0,0E0,0E0],"parents":[2147483647,0,0,1,1,2,2],"right_children":[2,4,6,-1,-1,-1,-1],"split_conditions":[-5.3870034E-1,-1.2596312E0,1.0343704E0,-3.3829364E-3,-1.4723647E-2,9.931818E-3,-6.2979963E-3],"split_indices":[7,7,7,0,0,0,0],"split_type":[0,0,0,0,0,0,0],"sum_hessian":[2.646995E1,8.862375E0,1.7607574E1,2.1093297E0,6.753045E0,1.4129678E1,3.4778974E0],"tree_param":{"num_deleted":"0","num_feature":"8","num_nodes":"7","size_leaf_vector":"1"}},{"base_weights":[9.639344E-2,-1.2561152E0,8.054717E-1,-5.1655513E-3,-1.4555808E-2,1.1204184E-2,-5.004274E-3],"categories":[],"categories_nodes":[],"categories_segments":[],"categories_sizes":[],"default_left":[0,0,0,0,0,0,0],"id":32,"left_children":[1,3,5,-1,-1,-1,-1],"loss_changes":[2.6701855E1,6.6489124E-1,8.039259E0,0E0,0E0,0E0,0E0],"parents":[2147483647,0,0,1,1,2,2],"right_children":[2,4,6,-1,-1,-1,-1],"split_conditions":[-3.4628016E-1,-1.2596312E0,1.2187848E0,-5.1655513E-3,-1.4555808E-2,1.1204184E-2,-5.004274E-3],"split_indices":[7,7,7,0,0,0,0],"split_type":[0,0,0,0,0,0,0],"sum_hessian":[2.5787449E1,8.604189E0,1.718326E1,2.590196E0,6.013993E0,1.3958814E1,3.2244463E0],"tree_param":{"num_deleted":"0","num_feature":"8","num_nodes":"7","size_leaf_vector":"1"}},{"base_weights":[-1.6014589E-2,-3.009873E-1,7.627933E-1,-5.109777E-3,5.9528225E-3,9.587982E-3,-8.935797E-4],"categories":[],"categories_nodes":[],"categories_segments":[],"categories_sizes":[],"default_left":[0,0,0,0,0,0,0],"id":33,"left_children":[1,3,5,-1,-1,-1,-1],"loss_changes":[6.5426993E0,4.3585896E0,1.4056883E0,0E0,0E0,0E0,0E0],"parents":[2147483647,0,0,1,1,2,2],"right_children":[2,4,6,-1,-1,-1,-1],"split_conditions":[4.9979746E-1,5.272337E-1,2.1996412E0,-5.109777E-3,5.9528225E-3,9.587982E-3,-8.935797E-4],"split_indices":[2,5,2,0,0,0,0],"split_type":[0,0,0,0,0,0,0],"sum_hessian":[2.744524E1,2.0542196E1,6.9030437E0,1.6991158E1,3.5510387E0,5.5104294E0,1.3926145E0],"tree_param":{"num_deleted":"0","num_feature":"8","num_nodes":"7","size_leaf_vector":"1"}},{"base_weights":[-7.699876E-2,-1.2738258E0,6.298031E-1,-1.4460135E-2,-5.4122526E-3,9.84141E-3,-1.8392903E-3],"categories":[],"categories_nodes":[],"categories_segments":[],"categories_sizes":[],"default_left":[0,0,0,0,0,0,0],"id":34,"left_children":[1,3,5,-1,-1,-1,-1],"loss_changes":[2.4044945E1,5.4600906E-1,5.3548274E0,0E0,0E0,0E0,0E0],"parents":[2147483647,0,0,1,1,2,2],"right_children":[2,4,6,-1,-1,-1,-1],"split_conditions":[-5.3870034E-1,-4.7319302E-1,9.849713E-1,-1.4460135E-2,-5.4122526E-3,9.84141E-3,-1.8392903E-3],"split_indices":[7,1,7,0,0,0,0],"split_type":[0,0,0,0,0,0,0],"sum_hessian":[2.6476234E1,9.532545E0,1.694369E1,6.9299464E0,2.6025987E0,1.1657875E1,5.285815E0],"tree_param":{"num_deleted":"0","num_feature":"8","num_nodes":"7","size_leaf_vector":"1"}},{"base_weights":[2.4476212E-2,-1.131339E0,6.3556695E-1,-1.3214713E-2,3.3830001E-4,9.82523E-3,-2.95626E-3],"categories":[],"categories_nodes":[],"categories_segments":[],"categories_sizes":[],"default_left":[0,0,0,0,0,0,0],"id":35,"left_children":[1,3,5,-1,-1,-1,-1],"loss_changes":[2.067285E1,2.28895E0,6.467965E0,0E0,0E0,0E0,0E0],"parents":[2147483647,0,0,1,1,2,2],"right_children":[2,4,6,-1,-1,-1,-1],"split_conditions":[-5.3870034E-1,1.4725226E0,9.849713E-1,-1.3214713E-2,3.3830001E-4,9.82523E-3,-2.95626E-3],"split_indices":[7,6,7,0,0,0,0],"split_type":[0,0,0,0,0,0,0],"sum_hessian":[2.725086E1,9.130367E0,1.8120493E1,7.7341604E0,1.3962071E0,1.316149E1,4.959003E0],"tree_param":{"num_deleted":"0","num_feature":"8","num_nodes":"7","size_leaf_vector":"1"}},{"base_weights":[-7.492874E-2,-1.1129645E0,4.913467E-1,-1.3190798E-2,2.6559248E-3,7.831996E-3,-9.627114E-3],"categories":[],"categories_nodes":[],"categories_segments":[],"categories_sizes":[],"default_left":[0,0,0,0,0,0,0],"id":36,"left_children":[1,3,5,-1,-1,-1,-1],"loss_changes":[1.6835188E1,3.2165031E0,8.657021E0,0E0,0E0,0E0,0E0],"parents":[2147483647,0,0,1,1,2,2],"right_children":[2,4,6,-1,-1,-1,-1],"split_conditions":[-5.5938095E-1,8.6668754E-1,1.2550149E0,-1.3190798E-2,2.6559248E-3,7.831996E-3,-9.627114E-3],"split_indices":[7,0,7,0,0,0,0],"split_type":[0,0,0,0,0,0,0],"sum_hessian":[2.6710007E1,9.087097E0,1.762291E1,7.9426885E0,1.1444088E0,1.5061245E1,2.5616653E0],"tree_param":{"num_deleted":"0","num_feature":"8","num_nodes":"7","size_leaf_vector":"1"}},{"base_weights":[1.2579603E-1,-1.1934658E0,7.1021116E-1,-4.796924E-3,-1.3951495E-2,9.499411E-3,-1.3278488E-3],"categories":[],"categories_nodes":[],"categories_segments":[],"categories_sizes":[],"default_left":[0,0,0,0,0,0,0],"id":37,"left_children":[1,3,5,-1,-1,-1,-1],"loss_changes":[2.317768E1,6.644249E-1,4.3090696E0,0E0,0E0,0E0,0E0],"parents":[2147483647,0,0,1,1,2,2],"right_children":[2,4,6,-1,-1,-1,-1],"split_conditions":[-5.3870034E-1,-1.2596312E0,1.0343704E0,-4.796924E-3,-1.3951495E-2,9.499411E-3,-1.3278488E-3],"split_indices":[7,7,7,0,0,0,0],"split_type":[0,0,0,0,0,0,0],"sum_hessian":[2.7962603E1,8.264383E0,1.969822E1,2.565023E0,5.6993604E0,1.5237996E1,4.4602222E0],"tree_param":{"num_deleted":"0","num_feature":"8","num_nodes":"7","size_leaf_vector":"1"}},{"base_weights":[6.8770973E-3,-1.0883023E0,6.3775843E-1,-1.2984436E-2,2.6927628E-3,9.652882E-3,-1.2271666E-2],"categories":[],"categories_nodes":[],"categories_segments":[],"categories_sizes":[],"default_left":[0,0,0,0,0,0,0],"id":38,"left_children":[1,3,5,-1,-1,-1,-1],"loss_changes":[1.8547129E1,3.1493587E0,1.1584004E1,0E0,0E0,0E0,0E0],"parents":[2147483647,0,0,1,1,2,2],"right_children":[2,4,6,-1,-1,-1,-1],"split_conditions":[-5.3870034E-1,6.145947E-1,1.2187848E0,-1.2984436E-2,2.6927628E-3,9.652882E-3,-1.2271666E-2],"split_indices":[7,0,7,0,0,0,0],"split_type":[0,0,0,0,0,0,0],"sum_hessian":[2.4839231E1,8.813819E0,1.6025412E1,7.6701117E0,1.1437076E0,1.4041717E1,1.9836953E0],"tree_param":{"num_deleted":"0","num_feature":"8","num_nodes":"7","size_leaf_vector":"1"}},{"base_weights":[5.51073E-2,-1.4994493E-1,9.8932654E-1,2.5086082E-3,-5.3746505E-3,1.2489516E-2,9.4092294E-4],"categories":[],"categories_nodes":[],"categories_segments":[],"categories_sizes":[],"default_left":[0,0,0,0,0,0,0],"id":39,"left_children":[1,3,5,-1,-1,-1,-1],"loss_changes":[5.0071597E0,3.5001848E0,9.7412825E-1,0E0,0E0,0E0,0E0],"parents":[2147483647,0,0,1,1,2,2],"right_children":[2,4,6,-1,-1,-1,-1],"split_conditions":[9.375377E-1,-4.2783347E-1,1.2869905E0,2.5086082E-3,-5.3746505E-3,1.2489516E-2,9.4092294E-4],"split_indices":[5,2,6,0,0,0,0],"split_type":[0,0,0,0,0,0,0],"sum_hessian":[2.4363958E1,2.0667202E1,3.6967573E0,1.0332803E1,1.0334399E1,2.5593991E0,1.1373582E0],"tree_param":{"num_deleted":"0","num_feature":"8","num_nodes":"7","size_leaf_vector":"1"}},{"base_weights":[1.2590556E-1,-6.7339593E-1,3.441082E-1,-1.08828945E-2,5.8882236E-3,4.5572747E-3,-4.8946156E-3],"categories":[],"categories_nodes":[],"categories_segments":[],"categories_sizes":[],"default_left":[0,0,0,0,0,0,0],"id":40,"left_children":[1,3,5,-1,-1,-1,-1],"loss_changes":[5.067439E0,3.9316745E0,2.3111343E0,0E0,0E0,0E0,0E0],"parents":[2147483647,0,0,1,1,2,2],"right_children":[2,4,6,-1,-1,-1,-1],"split_conditions":[-7.119597E-1,6.7924863E-1,1.196157E0,-1.08828945E-2,5.8882236E-3,4.5572747E-3,-4.8946156E-3],"split_indices":[1,3,0,0,0,0,0],"split_type":[0,0,0,0,0,0,0],"sum_hessian":[2.6726198E1,5.284041E0,2.1442156E1,4.080552E0,1.203489E0,1.9309761E1,2.1323946E0],"tree_param":{"num_deleted":"0","num_feature":"8","num_nodes":"7","size_leaf_vector":"1"}},{"base_weights":[-1.7992842E-1,-1.0973072E0,4.860491E-1,-1.2344408E-2,-1.6576023E-3,7.2700777E-3,-7.8855455E-3],"categories":[],"categories_nodes":[],"categories_segments":[],"categories_sizes":[],"default_left":[0,0,0,0,0,0,0],"id":41,"left_children":[1,3,5,-1,-1,-1,-1],"loss_changes":[1.689714E1,1.2737427E0,5.552237E0,0E0,0E0,0E0,0E0],"parents":[2147483647,0,0,1,1,2,2],"right_children":[2,4,6,-1,-1,-1,-1],"split_conditions":[-2.932247E-1,1.4725226E0,1.4140915E0,-1.2344408E-2,-1.6576023E-3,7.2700777E-3,-7.8855455E-3],"split_indices":[7,6,7,0,0,0,0],"split_type":[0,0,0,0,0,0,0],"sum_hessian":[2.5784023E1,1.0572637E1,1.5211388E1,8.932523E0,1.640114E0,1.315425E1,2.0571375E0],"tree_param":{"num_deleted":"0","num_feature":"8","num_nodes":"7","size_leaf_vector":"1"}},{"base_weights":[3.660295E-3,-4.6904007E-1,4.8194087E-1,-7.0744394E-3,5.3501106E-3,8.76321E-3,-7.9746597E-4],"categories":[],"categories_nodes":[],"categories_segments":[],"categories_sizes":[],"default_left":[0,0,0,0,0,0,0],"id":42,"left_children":[1,3,5,-1,-1,-1,-1],"loss_changes":[6.4876103E0,3.834018E0,3.2287052E0,0E0,0E0,0E0,0E0],"parents":[2147483647,0,0,1,1,2,2],"right_children":[2,4,6,-1,-1,-1,-1],"split_conditions":[5.5952802E-2,5.978151E-1,3.2584906E-1,-7.0744394E-3,5.3501106E-3,8.76321E-3,-7.9746597E-4],"split_indices":[5,3,3,0,0,0,0],"split_type":[0,0,0,0,0,0,0],"sum_hessian":[2.6695803E1,1.3435942E1,1.3259861E1,1.1096561E1,2.3393795E0,7.4610457E0,5.7988153E0],"tree_param":{"num_deleted":"0","num_feature":"8","num_nodes":"7","size_leaf_vector":"1"}},{"base_weights":[-8.542631E-2,-1.2013671E0,5.557604E-1,-1.2894555E-2,-2.5747344E-3,1.0928732E-2,-1.1857351E-3],"categories":[],"categories_nodes":[],"categories_segments":[],"categories_sizes":[],"default_left":[0,0,0,0,0,0,0],"id":43,"left_children":[1,3,5,-1,-1,-1,-1],"loss_changes":[1.8575583E1,4.5364857E-1,6.1342382E0,0E0,0E0,0E0,0E0],"parents":[2147483647,0,0,1,1,2,2],"right_children":[2,4,6,-1,-1,-1,-1],"split_conditions":[-3.4628016E-1,6.145947E-1,6.18945E-1,-1.2894555E-2,-2.5747344E-3,1.0928732E-2,-1.1857351E-3],"split_indices":[7,0,7,0,0,0,0],"split_type":[0,0,0,0,0,0,0],"sum_hessian":[2.40276E1,8.449015E0,1.5578585E1,7.3929677E0,1.056047E0,8.326102E0,7.252483E0],"tree_param":{"num_deleted":"0","num_feature":"8","num_nodes":"7","size_leaf_vector":"1"}},{"base_weights":[7.6853886E-2,-1.1780615E0,7.402859E-1,-5.3644544E-3,-1.3667975E-2,1.0641794E-2,-2.612158E-3],"categories":[],"categories_nodes":[],"categories_segments":[],"categories_sizes":[],"default_left":[0,0,0,0,0,0,0],"id":44,"left_children":[1,3,5,-1,-1,-1,-1],"loss_changes":[2.2607357E1,4.0685272E-1,6.0169954E0,0E0,0E0,0E0,0E0],"parents":[2147483647,0,0,1,1,2,2],"right_children":[2,4,6,-1,-1,-1,-1],"split_conditions":[-5.3870034E-1,-1.2596312E0,1.0343704E0,-5.3644544E-3,-1.3667975E-2,1.0641794E-2,-2.612158E-3],"split_indices":[7,7,7,0,0,0,0],"split_type":[0,0,0,0,0,0,0],"sum_hessian":[2.5106815E1,8.414553E0,1.6692263E1,2.7859397E0,5.628613E0,1.2565801E1,4.1264625E0],"tree_param":{"num_deleted":"0","num_feature":"8","num_nodes":"7","size_leaf_vector":"1"}},{"base_weights":[6.2694885E-2,-1.1230316E0,7.9716235E-1,-1.3199255E-2,2.772089E-3,9.724674E-3,-5.8151637E-3],"categories":[],"categories_nodes":[],"categories_segments":[],"categories_sizes":[],"default_left":[0,0,0,0,0,0,0],"id":45,"left_children":[1,3,5,-1,-1,-1,-1],"loss_changes":[2.424699E1,3.3079948E0,4.7086945E0,0E0,0E0,0E0,0E0],"parents":[2147483647,0,0,1,1,2,2],"right_children":[2,4,6,-1,-1,-1,-1],"split_conditions":[-3.4628016E-1,8.6668754E-1,1.4140915E0,-1.3199255E-2,2.772089E-3,9.724674E-3,-5.8151637E-3],"split_indices":[7,0,7,0,0,0,0],"split_type":[0,0,0,0,0,0,0],"sum_hessian":[2.5814047E1,9.671426E0,1.614262E1,8.529425E0,1.1420012E0,1.4582971E1,1.55965E0],"tree_param":{"num_deleted":"0","num_feature":"8","num_nodes":"7","size_leaf_vector":"1"}},{"base_weights":[1.0908691E-1,-1.013397E0,6.7086565E-1,-1.2402979E-2,3.300141E-3,9.541088E-3,-5.2938296E-4],"categories":[],"categories_nodes":[],"categories_segments":[],"categories_sizes":[],"default_left":[0,0,0,0,0,0,0],"id":46,"left_children":[1,3,5,-1,-1,-1,-1],"loss_changes":[1.7324492E1,3.2144032E0,3.7803106E0,0E0,0E0,0E0,0E0],"parents":[2147483647,0,0,1,1,2,2],"right_children":[2,4,6,-1,-1,-1,-1],"split_conditions":[-5.3870034E-1,9.179759E-1,7.952149E-1,-1.2402979E-2,3.300141E-3,9.541088E-3,-5.2938296E-4],"split_indices":[7,6,7,0,0,0,0],"split_type":[0,0,0,0,0,0,0],"sum_hessian":[2.5395441E1,8.202403E0,1.7193039E1,7.0828676E0,1.1195359E0,1.21286125E1,5.064426E0],"tree_param":{"num_deleted":"0","num_feature":"8","num_nodes":"7","size_leaf_vector":"1"}},{"base_weights":[2.8472373E-2,-1.1349397E0,5.89851E-1,-1.3811628E-2,2.8762189E-3,8.85125E-3,-4.310428E-3],"categories":[],"categories_nodes":[],"categories_segments":[],"categories_sizes":[],"default_left":[0,0,0,0,0,0,0],"id":47,"left_children":[1,3,5,-1,-1,-1,-1],"loss_changes":[1.7788528E1,3.5052462E0,5.909472E0,0E0,0E0,0E0,0E0],"parents":[2147483647,0,0,1,1,2,2],"right_children":[2,4,6,-1,-1,-1,-1],"split_conditions":[-5.3870034E-1,6.145947E-1,9.849713E-1,-1.3811628E-2,2.8762189E-3,8.85125E-3,-4.310428E-3],"split_indices":[7,0,7,0,0,0,0],"split_type":[0,0,0,0,0,0,0],"sum_hessian":[2.5211452E1,7.873193E0,1.7338259E1,6.736339E0,1.136854E0,1.3551684E1,3.7865741E0],"tree_param":{"num_deleted":"0","num_feature":"8","num_nodes":"7","size_leaf_vector":"1"}},{"base_weights":[-1.8217823E-1,-1.0021577E0,3.844956E-1,-1.18887955E-2,2.7847977E-3,7.114775E-3,-3.6330682E-3],"categories":[],"categories_nodes":[],"categories_segments":[],"categories_sizes":[],"default_left":[0,0,0,0,0,0,0],"id":48,"left_children":[1,3,5,-1,-1,-1,-1],"loss_changes":[1.1964299E1,2.8325043E0,4.03833E0,0E0,0E0,0E0,0E0],"parents":[2147483647,0,0,1,1,2,2],"right_children":[2,4,6,-1,-1,-1,-1],"split_conditions":[-2.932247E-1,8.6668754E-1,9.849713E-1,-1.18887955E-2,2.7847977E-3,7.114775E-3,-3.6330682E-3],"split_indices":[7,0,7,0,0,0,0],"split_type":[0,0,0,0,0,0,0],"sum_hessian":[2.3919191E1,9.460834E0,1.4458359E1,8.319472E0,1.1413612E0,1.0093485E1,4.364873E0],"tree_param":{"num_deleted":"0","num_feature":"8","num_nodes":"7","size_leaf_vector":"1"}},{"base_weights":[4.2978592E-2,-1.0691249E0,5.632841E-1,-1.3394632E-2,2.8646954E-3,-8.4182825E-3,7.861999E-3],"categories":[],"categories_nodes":[],"categories_segments":[],"categories_sizes":[],"default_left":[0,0,0,0,0,0,0],"id":49,"left_children":[1,3,5,-1,-1,-1,-1],"loss_changes":[1.4329749E1,3.281291E0,5.929389E0,0E0,0E0,0E0,0E0],"parents":[2147483647,0,0,1,1,2,2],"right_children":[2,4,6,-1,-1,-1,-1],"split_conditions":[-5.3870034E-1,9.179759E-1,-9.977568E-1,-1.3394632E-2,2.8646954E-3,-8.4182825E-3,7.861999E-3],"split_indices":[7,6,5,0,0,0,0],"split_type":[0,0,0,0,0,0,0],"sum_hessian":[2.2724041E1,6.9067397E0,1.5817302E1,5.768301E0,1.1384387E0,1.7856038E0,1.4031698E1],"tree_param":{"num_deleted":"0","num_feature":"8","num_nodes":"7","size_leaf_vector":"1"}}]},"name":"gbtree"},"learner_model_param":{"base_score":"[5E-1]","boost_from_average":"1","num_class":"0","num_feature":"8","num_target":"1"},"objective":{"name":"binary:logistic","reg_loss_param":{"scale_pos_weight":"1.31999993"}}},"version":[3,1,3]}